~o
<STREAMINFO> 1 39
<VECSIZE> 39<NULLD><MFCC_D_A_Z_0><DIAGC>
~h "UNV"
<BEGINHMM>
<NUMSTATES> 5
<STATE> 2
<MEAN> 39
 2.620058e+00 -3.411414e-02 2.114233e+00 2.485514e+00 -3.563943e+00 1.236626e-01 1.934629e+00 -1.521201e+00 -1.688656e+00 -2.362105e+00 1.595429e+00 -1.105783e+00 1.952783e-01 -5.286598e-03 -5.500977e-02 -3.522487e-02 1.172813e-01 -1.557930e-01 -6.076626e-02 -1.636138e-02 -1.568988e-02 -5.980152e-02 7.476950e-03 5.247581e-02 -8.304759e-03 1.638133e-01 -2.432073e-02 -1.586193e-02 -3.277541e-02 -3.143032e-02 2.500214e-02 1.114289e-02 -5.839956e-03 -1.540883e-02 -1.053673e-02 2.310405e-03 1.449153e-02 2.196930e-02 1.917563e-02
<VARIANCE> 39
 8.161909e+01 4.819328e+01 8.979916e+01 1.824335e+02 6.578692e+01 1.141491e+02 1.177000e+02 5.371933e+01 5.719853e+01 3.802549e+01 4.711448e+01 2.752974e+01 1.402728e+02 7.940985e+00 3.754304e+00 4.936679e+00 1.078089e+01 4.206785e+00 4.375812e+00 8.387148e+00 5.662985e+00 4.002206e+00 3.528682e+00 4.975336e+00 3.126473e+00 1.176686e+01 1.101817e+00 6.373013e-01 7.144036e-01 1.723955e+00 6.910227e-01 4.931502e-01 1.351810e+00 1.014965e+00 8.034579e-01 5.128875e-01 9.930944e-01 6.138152e-01 1.786846e+00
<GCONST> 1.474243e+02
<STATE> 3
<MEAN> 39
 -3.491290e+00 1.652547e+00 -2.185243e+00 8.857324e-02 3.576034e+00 -5.277249e-01 2.066864e+00 1.938949e+00 -1.512782e-01 1.499107e+00 2.075677e-01 2.854429e+00 -1.966598e+00 2.582575e-02 3.245891e-02 1.793483e-01 -1.986676e-01 3.766344e-02 -8.762732e-02 -8.731610e-02 -5.768783e-02 -1.323879e-02 -4.178153e-02 -2.808085e-02 -4.743352e-02 2.248958e-01 4.852676e-02 1.665684e-02 6.312738e-02 4.527217e-02 -7.293792e-02 -2.042173e-03 -3.700082e-02 -2.468639e-02 -1.213464e-02 -5.162767e-02 1.766921e-02 -3.396687e-02 1.686389e-02
<VARIANCE> 39
 1.478068e+02 5.740681e+01 4.225285e+01 1.869590e+02 6.152479e+01 9.455399e+01 8.400163e+01 5.787653e+01 4.578395e+01 3.237926e+01 2.906124e+01 2.359381e+01 1.354081e+02 6.290422e+00 3.078962e+00 2.725312e+00 8.541048e+00 3.855765e+00 5.279736e+00 5.456441e+00 4.532940e+00 5.014969e+00 4.392983e+00 2.631245e+00 2.577430e+00 1.328116e+01 6.918513e-01 5.266851e-01 4.094217e-01 1.050382e+00 5.118133e-01 9.796452e-01 8.835670e-01 7.581097e-01 9.881509e-01 8.182449e-01 4.251565e-01 4.840539e-01 2.181552e+00
<GCONST> 1.415636e+02
<STATE> 4
<MEAN> 39
 7.955629e-01 -1.663789e+00 -8.254652e-03 -2.743873e+00 1.245995e-01 4.109988e-01 -4.191328e+00 -3.712513e-01 1.957939e+00 9.787533e-01 -1.916395e+00 -1.756577e+00 1.814917e+00 1.778957e-02 1.590984e-02 -1.396016e-01 1.600625e-02 9.655958e-02 1.393584e-01 3.409750e-02 7.845783e-02 1.131490e-01 3.112309e-02 -1.292682e-01 -3.041405e-03 -3.648075e-01 -3.810298e-02 1.575604e-02 -2.803998e-02 9.681105e-03 5.900704e-02 -1.166562e-02 6.619586e-02 3.428898e-02 -2.085827e-02 4.962653e-02 -1.584058e-02 3.545719e-02 -5.640085e-02
<VARIANCE> 39
 1.022555e+02 6.605779e+01 1.322576e+02 1.022488e+02 1.042141e+02 9.103068e+01 1.057000e+02 5.089642e+01 4.481351e+01 3.190101e+01 5.140673e+01 4.489534e+01 7.099708e+01 5.583764e+00 3.014689e+00 3.606530e+00 5.966074e+00 5.604834e+00 4.777358e+00 8.421895e+00 4.836722e+00 3.279685e+00 3.307827e+00 1.646616e+00 3.376155e+00 2.256574e+00 7.509062e-01 5.291135e-01 4.126678e-01 9.849895e-01 8.235874e-01 5.807627e-01 1.279556e+00 9.281512e-01 5.709744e-01 6.435340e-01 2.750915e-01 4.966611e-01 3.428980e-01
<GCONST> 1.383766e+02
<TRANSP> 5
 0.000000e+00 1.000000e+00 0.000000e+00 0.000000e+00 0.000000e+00
 0.000000e+00 9.909910e-01 9.009007e-03 0.000000e+00 0.000000e+00
 0.000000e+00 0.000000e+00 9.906542e-01 9.345796e-03 0.000000e+00
 0.000000e+00 0.000000e+00 0.000000e+00 9.903846e-01 9.615383e-03
 0.000000e+00 0.000000e+00 0.000000e+00 0.000000e+00 0.000000e+00
<ENDHMM>
